66 16
</s> 0.021262 -0.007800 0.005281 0.023329 0.002028 0.025530 -0.002643 0.012366 0.017214 -0.019765 -0.023333 0.001658 -0.001503 0.001692 0.017081 0.024520 
S 0.036557 -0.351520 0.051168 0.509947 -0.195764 0.043901 0.214780 -0.004332 0.020667 0.199568 -0.154493 -0.006952 -0.147249 -0.145928 -0.171290 0.174535 
a 0.468393 0.080898 0.179786 0.431122 0.046317 0.167528 0.319172 0.304704 0.030246 0.279455 -0.245269 0.335600 -0.107727 0.191586 0.296455 -0.049749 
e 0.557780 0.081879 0.153356 0.277438 -0.081859 -0.255309 0.096657 -0.106334 -0.277714 0.218344 0.070608 0.322630 -0.045402 -0.268880 0.143461 -0.091440 
o -0.091754 0.039455 -0.128938 0.444443 -0.055141 -0.043219 0.236369 0.013481 -0.338267 0.423522 -0.276180 -0.180102 -0.049757 -0.326038 0.513798 0.124262 
t 0.125218 -0.364316 -0.270928 0.249573 -0.139170 -0.168934 -0.041875 -0.417787 -0.399162 0.328326 -0.040772 0.336961 0.054052 0.436320 0.218905 -0.070700 
p 0.363384 0.433056 0.094590 0.371757 -0.218506 0.415164 0.322791 0.083343 -0.000048 0.408526 -0.024155 -0.343107 -0.068016 0.405692 -0.398484 -0.285114 
s 0.239061 -0.047782 0.087266 0.304754 -0.341747 -0.130819 0.235611 -0.267085 -0.190194 0.080409 0.206635 0.043596 -0.018944 0.036986 0.368523 -0.234702 
l 0.512590 -0.194840 -0.410406 0.327558 -0.185252 -0.135292 0.069869 -0.221481 -0.004952 0.176360 0.442293 -0.369262 -0.319412 -0.215813 0.177443 -0.012696 
i 0.420122 0.203514 0.259395 0.683896 -0.015214 -0.270716 0.428999 0.302448 -0.150671 0.167207 -0.014037 0.299961 0.121148 -0.141648 0.369874 0.111072 
n -0.013671 0.178731 0.464815 0.688635 -0.654884 -0.166568 0.541068 -0.152637 0.350711 0.176038 0.241570 -0.265184 -0.067299 0.173406 0.581016 0.102307 
r 0.394151 -0.135491 -0.179857 0.218039 -0.642919 -0.375680 0.094603 0.069173 0.060663 -0.027547 -0.089134 -0.195841 -0.230108 0.046351 0.295468 -0.038627 
h -0.016542 0.144222 0.135921 0.967433 -0.195999 -0.038900 0.428887 -0.043598 0.152479 -0.340712 -0.131943 0.008342 -0.200815 0.011989 0.335291 -0.566560 
m -0.253965 0.219431 -0.425401 0.338576 -0.518969 -0.173029 0.051178 -0.079188 -0.175887 0.313939 -0.174722 -0.012030 -0.271785 0.213026 -0.005056 -0.080572 
d 0.067359 0.222830 0.055856 0.407895 -0.558906 -0.507906 0.316829 -0.101504 -0.085174 0.371132 0.030170 0.173478 -0.031919 0.014936 -0.010122 0.104627 
c 0.022843 -0.015157 -0.076329 0.617604 -0.259071 0.309680 -0.169705 -0.175624 0.145195 0.559842 -0.281004 -0.129245 -0.312300 0.220297 0.260027 -0.262877 
u 0.057402 -0.020951 0.054645 0.506642 0.310343 0.170136 0.351721 -0.218801 -0.217108 0.406140 0.334611 -0.161564 0.016574 -0.362679 0.462174 0.201836 
g -0.411662 0.039073 -0.208426 0.300717 -0.094071 -0.074053 0.190395 -0.170015 0.032598 0.625311 -0.302391 0.085043 -0.436736 0.008386 0.375770 0.111143 
k 0.013165 0.356394 -0.514230 0.511220 -0.001286 0.002771 0.487126 0.159228 0.842321 0.360478 -0.001816 0.218920 -0.457599 0.161357 0.010494 -0.008334 
y 0.276084 0.272069 -0.156771 0.349824 -0.472956 -0.240940 -0.228353 -0.072436 0.015133 0.345942 0.018369 -0.051825 -0.007608 -0.441061 0.280238 -0.110277 
b 0.119983 0.123478 -0.168979 0.318116 -0.236247 -0.298264 0.048425 -0.606797 -0.175814 0.119021 0.116413 0.118340 -0.108862 -0.279430 0.056286 0.002149 
w -0.243735 -0.319606 -0.420877 0.798284 0.083186 0.170164 0.168892 -0.451590 -0.479592 -0.194593 -0.140000 -0.096590 0.309731 -0.056373 0.097059 -0.443304 
q 0.958155 0.568338 -0.519036 -0.091793 -0.074593 -0.115497 1.685946 -0.689028 -0.069890 -0.438728 -0.010785 0.120854 -0.314517 0.084928 -0.118117 -0.443349 
f -0.082655 0.091312 -0.184959 0.621728 -0.099224 -0.126546 -0.085268 -0.433874 0.033745 -0.044986 0.182201 -0.260550 0.252824 -0.352685 0.477495 -0.373341 
? 0.643654 1.084722 -1.008554 0.707081 -0.237142 1.184010 -0.712014 -0.751949 -0.245131 -1.095433 0.088910 0.692845 -0.161224 -0.069882 0.377854 1.314017 
v 0.087361 -0.194302 -0.128169 0.340747 -0.624818 -0.647370 0.204925 -0.025442 0.056033 0.063253 0.228310 0.308950 -0.080938 0.297627 0.043394 -0.090143 
j 0.696938 0.175316 0.218048 0.895967 -0.561352 -0.322827 0.270381 -0.230128 0.764779 0.610448 0.348778 0.457884 -0.019795 -0.062222 0.218299 -0.226897 
! -0.017041 0.282835 -0.223015 0.478991 -1.017506 1.368686 0.561971 0.289099 -0.738067 0.357415 0.921932 0.991869 -0.304586 -0.261759 -0.204633 0.344150 
. -0.047403 -0.720479 -0.294823 0.372144 -0.776289 0.766647 0.632956 0.047129 -0.533001 -0.355550 -0.367007 0.274789 0.583380 -0.483479 0.647664 -0.735124 
1 0.236471 -0.184062 -0.690888 0.497247 -0.144352 0.040094 0.015618 -0.163113 0.419022 0.109760 -0.456236 0.310360 1.134657 -0.285745 -0.282723 0.631421 
x 0.469852 -0.068127 0.213707 0.946118 -0.534341 -0.249358 0.583254 -0.126943 0.661947 0.244291 0.148981 0.198937 0.151192 -0.088278 0.447605 0.496040 
z 0.343026 0.525361 0.135077 0.320983 -0.335540 -0.165403 -0.133215 0.521384 0.581544 0.450766 0.226354 -0.337707 -0.114888 0.364204 0.130347 0.168091 
0 0.038200 -0.130345 -0.671842 0.649772 -0.174310 0.510116 0.522837 0.312522 0.503077 0.472967 -0.527033 -0.178375 1.290981 0.279845 -0.051664 1.023407 
, 0.126993 0.029904 -0.045261 0.268226 -0.043285 -0.287050 0.394973 -0.263016 0.107527 0.257015 -0.103548 -0.174332 0.321133 0.097313 0.247256 -0.078997 
* 0.006250 -0.169174 -1.192665 0.799384 -1.082958 1.194057 -0.510275 1.107247 -0.458528 0.826916 0.414672 0.805865 0.330888 -1.204873 -0.021254 -0.417346 
/ 0.060043 -0.520572 -0.719324 0.115632 -0.556746 1.283894 0.827912 -0.079176 -0.603614 -0.265143 -1.057149 -0.136981 0.356077 -0.295276 -0.347498 -0.504916 
@ 0.569239 0.477143 0.094635 0.245538 -0.913015 0.766075 0.413154 -0.553840 0.107281 0.590293 -0.223697 -0.056736 -0.279157 0.376359 -0.726203 0.412920 
5 0.027398 0.132738 -0.250393 0.527077 -0.169437 0.111758 0.445788 0.233822 0.663868 0.372118 -0.355222 -0.024125 1.193635 0.015288 0.162373 0.637818 
) 0.207092 -0.436878 0.058736 0.886288 -0.341799 -0.209636 0.390352 0.349480 0.253576 0.065028 -0.363175 0.032907 0.532860 0.103762 0.001539 0.023496 
2 0.138771 0.027563 -0.489305 0.508072 -0.187348 0.241982 0.457804 0.097743 0.612634 0.190236 -0.217548 0.156921 1.160938 -0.164549 -0.262484 0.834536 
' 0.275240 -0.035030 -0.039930 0.679118 -0.288121 -0.317379 0.461010 -0.104310 -0.532377 -0.168358 -0.392372 -0.125065 0.225125 -0.152057 0.120304 -0.208527 
( 0.062702 -0.186291 -0.398425 0.572321 -0.113659 -0.152733 -0.019077 -0.042583 0.379608 -0.122763 -0.367612 -0.048014 0.857104 -0.031004 0.677537 -0.243531 
4 -0.086037 -0.341391 -0.113371 0.661713 -0.232246 0.169075 0.457473 0.036214 0.384461 0.315914 -0.087012 0.421964 0.637448 0.453541 -0.093612 0.515226 
- 0.788625 -0.621772 -1.138917 0.284440 -1.027360 0.878171 0.088679 -0.066949 1.193510 0.089320 -0.321061 0.452473 0.588764 -1.126099 -0.171658 -0.391305 
6 0.192686 -0.328634 -0.572936 0.306580 -0.646410 1.156562 -0.401437 0.352141 1.280959 0.681390 -0.019177 -0.300900 1.640765 -0.589625 0.285679 1.188942 
3 0.328639 -0.311779 -0.394736 0.506420 -0.252501 0.423493 0.818109 -0.226511 0.568013 0.353401 -0.456745 -0.069600 1.305315 -0.179541 -0.277571 0.511996 
_ 1.160671 -1.741319 0.523306 0.633248 -0.988401 0.056072 0.430107 0.024783 1.103436 0.808233 -1.864746 -1.559927 1.851258 -0.507295 -0.758292 -0.683426 
" 0.930654 -0.448839 -0.530012 0.149707 -0.207232 -0.071137 0.274479 -0.267059 -0.817617 0.435169 -0.160004 -0.621057 0.333187 0.235418 -0.189072 -0.139100 
7 0.171303 -0.098371 -0.400301 0.602321 -0.222145 0.531464 0.234848 -0.006867 0.697558 0.123113 -0.621430 0.206495 1.262990 -0.326345 0.089953 0.441991 
9 0.213124 -0.459807 -0.452043 0.818511 -0.295998 1.068884 0.241880 0.036686 0.618200 0.058097 -0.478934 0.049595 1.174756 -0.498515 -0.324947 0.403386 
$ -0.294650 -0.511986 -1.103208 1.215174 -0.222907 0.486665 0.911524 0.782628 0.982833 0.208670 -0.131908 0.059538 1.985787 -1.126444 -1.322628 0.858974 
8 -0.085019 -0.474918 -0.449967 0.535717 -0.136319 0.421020 0.439357 0.044566 0.763532 0.253405 -0.580938 -0.200724 1.211588 -0.462899 -0.267560 0.454021 
< 0.278604 -0.574777 -0.596585 0.539583 -0.429937 0.564113 1.113633 -0.077245 0.154521 0.270761 -0.357470 0.065249 1.310528 -0.325053 -0.542409 0.174066 
+ 0.302791 0.416002 -0.778902 0.834810 -0.293101 0.353647 0.180865 -0.177952 -0.045626 0.334893 -0.401173 -0.173005 0.960731 -0.073061 -0.096649 0.210399 
\ 0.165459 -0.696250 -0.836021 0.956944 -0.598405 0.323010 0.694424 -0.233569 0.070323 0.295715 -0.439206 0.048855 1.241368 -0.028097 -0.381418 -0.401442 
= 0.165637 0.171700 -0.104503 0.377865 -0.399051 0.144460 -0.157254 -0.092455 0.155683 -0.075920 -0.122297 -0.002186 0.369173 0.288505 0.115815 0.304159 
> 0.146823 -0.205204 -0.394569 0.612308 -0.313408 0.118028 0.484316 0.125531 0.418534 0.219134 -0.318259 -0.112322 0.700300 -0.200944 -0.267415 0.075743 
; 0.081276 -0.287510 -0.478544 0.483979 -0.566801 0.470504 0.555614 -0.130455 0.143907 0.542968 -0.033965 0.128432 0.747254 -0.076962 -0.279426 0.241418 
% -0.041252 -0.178804 -0.202670 0.589967 -0.324179 0.329927 0.253613 0.085562 0.540367 0.128796 -0.373046 -0.071845 0.986050 -0.331385 -0.211355 0.473232 
^ 0.333575 -0.242719 -0.288576 0.172677 -0.396433 0.199267 0.346065 -0.271193 -0.102922 0.372973 -0.008280 -0.063302 0.693259 -0.083599 -0.135235 0.065368 
# 0.044571 -0.164148 -0.276031 0.203481 -0.103016 0.210979 0.174589 -0.003970 0.260184 0.032235 0.047960 0.071169 0.438990 -0.186119 -0.238196 0.230846 
 0.258210 0.123748 -0.157425 0.099056 -0.099056 0.115122 0.225733 -0.049229 -0.057147 0.195088 0.191984 0.042075 0.020929 0.176025 -0.198863 -0.055547 
~ 0.499043 -0.078749 -0.067872 0.176544 0.011668 0.089298 0.157567 0.109233 -0.100143 0.089739 0.198364 -0.018656 0.086740 0.263299 -0.271002 0.131242 
& -0.013508 -0.123839 -0.218012 0.262593 -0.175610 0.123633 0.203397 0.047620 0.310666 0.106545 -0.046224 0.144492 0.359800 -0.093650 -0.092906 0.216541 
] 0.092442 -0.034650 -0.111484 0.308694 -0.113551 -0.003124 0.145337 -0.046664 0.049998 0.106004 0.029725 0.039705 0.115314 0.073095 -0.068644 -0.074799 
[ 0.035545 -0.026280 -0.027289 0.053514 -0.016031 0.011904 0.050491 0.031317 0.073150 0.037404 0.009283 -0.010184 0.037144 0.021216 -0.021426 -0.001340 
